digraph Tree {
node [shape=box, style="filled", color="black"] ;
0 [label="PetalLengthCm <= 2.45\ngini = 0.666\nsamples = 100\nvalue = [35, 31, 34]\nclass = Iris-setosa", fillcolor="#e5813904"] ;
1 [label="gini = 0.0\nsamples = 35\nvalue = [35, 0, 0]\nclass = Iris-setosa", fillcolor="#e58139ff"] ;
0 -> 1 [labeldistance=2.5, labelangle=45, headlabel="True"] ;
2 [label="PetalLengthCm <= 4.75\ngini = 0.499\nsamples = 65\nvalue = [0, 31, 34]\nclass = Iris-versicolor", fillcolor="#8139e517"] ;
0 -> 2 [labeldistance=2.5, labelangle=-45, headlabel="False"] ;
3 [label="PetalWidthCm <= 1.6\ngini = 0.064\nsamples = 30\nvalue = [0, 29, 1]\nclass = Iris-virginica", fillcolor="#39e581f6"] ;
2 -> 3 ;
4 [label="gini = 0.0\nsamples = 29\nvalue = [0, 29, 0]\nclass = Iris-virginica", fillcolor="#39e581ff"] ;
3 -> 4 ;
5 [label="gini = 0.0\nsamples = 1\nvalue = [0, 0, 1]\nclass = Iris-versicolor", fillcolor="#8139e5ff"] ;
3 -> 5 ;
6 [label="PetalWidthCm <= 1.75\ngini = 0.108\nsamples = 35\nvalue = [0, 2, 33]\nclass = Iris-versicolor", fillcolor="#8139e5f0"] ;
2 -> 6 ;
7 [label="PetalWidthCm <= 1.55\ngini = 0.48\nsamples = 5\nvalue = [0, 2, 3]\nclass = Iris-versicolor", fillcolor="#8139e555"] ;
6 -> 7 ;
8 [label="gini = 0.0\nsamples = 3\nvalue = [0, 0, 3]\nclass = Iris-versicolor", fillcolor="#8139e5ff"] ;
7 -> 8 ;
9 [label="gini = 0.0\nsamples = 2\nvalue = [0, 2, 0]\nclass = Iris-virginica", fillcolor="#39e581ff"] ;
7 -> 9 ;
10 [label="gini = 0.0\nsamples = 30\nvalue = [0, 0, 30]\nclass = Iris-versicolor", fillcolor="#8139e5ff"] ;
6 -> 10 ;
}